0.2406130284
0.2385137379
-0.2595415413
-0.1327885687
0.1742718220
0.1127134711
-0.2417967618
-0.2417201996
0.2496884912
-0.1705729514
-0.2305423468
0.2307505310
-0.2413557470
0.2043178082
0.1868714988
-0.2220572531
0.2199472338
-0.2481097579
0.2212031335
0.2202285379
-0.2364784777
0.1854522228
0.2114771307
-0.1917881221
0.2292445451
-0.2315390557
0.1609619111
-0.1118742302
0.1677555442
-0.0551035590
0.1396333873
0.1809401661
-0.2442312241
0.2202408314
0.2494262755
0.0252643470
0.2197171003
0.1905194372
0.2086221278
-0.2090677768
0.0047641089
-0.1981563121
0.0419460200
0.1906392276
-0.0358834751
-0.2376498878
-0.1865284592
0.1922031939
0.2019031495
-0.0163728055
0.2088788897
-0.1713548303
0.2061155438
0.2332093269
0.1544094086
-0.2263269126
-0.1681243777
-0.1161380857
0.1680101007
-0.1939263642
0.2383910865
0.0423769988
-0.1128938496
0.1678488553
0.1953501850
-0.1868238747
-0.2348950207
-0.0411872081
-0.1734996885
-0.0778306723
0.1643871069
0.2395603806
-0.2526173890
0.1872181892
-0.1615277380
0.2400305867
0.2179439217
0.2298875600
-0.2502144277
0.2325013429
-0.2485441864
0.0470255725
0.1996640265
-0.1460682750
0.1939414293
0.0205641426
-0.1925119609
-0.1878816932
-0.1644436270
-0.2021013349
-0.0430180058
-0.0315045528
-0.1829128414
-0.2035694271
0.2266863286
0.1663134843
-0.0452287942
-0.0366692543
0.2353059053
-0.1729576439
0.1965706497
-0.2507731915
-0.1893327981
0.2175647616
0.1543592811
-0.2423687726
0.1615322530
0.2487896383
-0.2452646196
0.1561207622
0.2008615732
0.2429429889
0.0898524746
-0.1818200499
0.2407105416
-0.2012043744
-0.0005427542
-0.1721350104
0.0166489165
-0.2239733934
0.1872581691
0.2419564873
-0.0487802550
-0.2364131957
-0.0417085625
-0.0919628367
-0.2017325461
0.2331791967
