0.2421875000
0.2421875000
-0.2578125000
-0.1328125000
0.1718750000
0.1093750000
-0.2421875000
-0.2421875000
0.2500000000
-0.1718750000
-0.2343750000
0.2343750000
-0.2421875000
0.2031250000
0.1875000000
-0.2187500000
0.2187500000
-0.2500000000
0.2187500000
0.2187500000
-0.2343750000
0.1875000000
0.2109375000
-0.1953125000
0.2265625000
-0.2343750000
0.1640625000
-0.1093750000
0.1640625000
-0.0546875000
0.1406250000
0.1796875000
-0.2421875000
0.2187500000
0.2500000000
0.0234375000
0.2187500000
0.1875000000
0.2109375000
-0.2109375000
0.0078125000
-0.1953125000
0.0390625000
0.1875000000
-0.0390625000
-0.2343750000
-0.1875000000
0.1953125000
0.2031250000
-0.0156250000
0.2109375000
-0.1718750000
0.2031250000
0.2343750000
0.1562500000
-0.2265625000
-0.1718750000
-0.1171875000
0.1718750000
-0.1953125000
0.2421875000
0.0390625000
-0.1093750000
0.1640625000
0.1953125000
-0.1875000000
-0.2343750000
-0.0390625000
-0.1718750000
-0.0781250000
0.1640625000
0.2421875000
-0.2500000000
0.1875000000
-0.1640625000
0.2421875000
0.2187500000
0.2265625000
-0.2500000000
0.2343750000
-0.2500000000
0.0468750000
0.2031250000
-0.1484375000
0.1953125000
0.0234375000
-0.1953125000
-0.1875000000
-0.1640625000
-0.2031250000
-0.0468750000
-0.0312500000
-0.1796875000
-0.2031250000
0.2265625000
0.1640625000
-0.0468750000
-0.0390625000
0.2343750000
-0.1718750000
0.1953125000
-0.2500000000
-0.1875000000
0.2187500000
0.1562500000
-0.2421875000
0.1640625000
0.2500000000
-0.2421875000
0.1562500000
0.2031250000
0.2421875000
0.0937500000
-0.1796875000
0.2421875000
-0.2031250000
0.0000000000
-0.1718750000
0.0156250000
-0.2265625000
0.1875000000
0.2421875000
-0.0468750000
-0.2343750000
-0.0390625000
-0.0937500000
-0.2031250000
0.2343750000
